2 0 100 5 0.128327
3 0 100 5 0.522919
4 0 100 5 0.348753
1 1 100 5 1
1 2 100 5 1
2 3 100 5 0.934408
4 3 100 5 0.0655918
2 4 100 5 0.671692
4 4 100 5 0.328308
5 5 100 5 1
2 0 100 9 0.27482
3 0 100 9 0.0479605
4 0 100 9 0.322487
5 0 100 9 0.0868174
8 0 100 9 0.267915
1 1 100 9 1
1 2 100 9 0.000161678
2 2 100 9 0.154032
3 2 100 9 0.68521
5 2 100 9 1.32867e-05
6 2 100 9 0.0802916
7 2 100 9 0.0802915
2 3 100 9 8.35404e-06
3 3 100 9 0.187147
5 3 100 9 0.145148
6 3 100 9 0.517263
7 3 100 9 0.0027208
8 3 100 9 0.147714
2 4 100 9 0.000237938
5 4 100 9 0.592656
7 4 100 9 0.312661
8 4 100 9 0.0157997
9 4 100 9 0.0786451
6 5 100 9 0.0625312
7 5 100 9 0.43612
9 5 100 9 0.501349
6 6 100 9 0.44318
7 6 100 9 0.113883
9 6 100 9 0.442937
1 0 100 11 4.59369e-05
2 0 100 11 0.124244
3 0 100 11 0.00901563
4 0 100 11 0.248489
5 0 100 11 0.243572
7 0 100 11 0.000155733
8 0 100 11 0.00798913
9 0 100 11 0.248489
10 0 100 11 0.118
1 1 100 11 0.341206
2 1 100 11 0.000233929
7 1 100 11 0.65856
2 2 100 11 0.000210031
3 2 100 11 0.933209
7 2 100 11 0.0665805
5 3 100 11 3.49297e-05
6 3 100 11 0.990289
8 3 100 11 0.00251428
10 3 100 11 0.00716201
5 4 100 11 7.99306e-05
8 4 100 11 0.912169
10 4 100 11 0.0877515
6 5 100 11 3.52011e-06
8 5 100 11 0.00288231
10 5 100 11 0.299226
11 5 100 11 0.697888
1 6 100 11 0.999611
2 6 100 11 0.000388668
1 7 100 11 0.000753552
2 7 100 11 0.999229
7 7 100 11 1.70584e-05
1 8 100 11 0.00746344
3 8 100 11 0.308776
5 8 100 11 0.679
10 8 100 11 0.00476017
3 9 100 11 0.965817
5 9 100 11 0.0338871
10 9 100 11 0.000296246
6 10 100 11 0.99999
11 10 100 11 1.00879e-05
2 0 100 12 0.199958
3 0 100 12 0.000209641
4 0 100 12 0.199958
5 0 100 12 0.199958
8 0 100 12 0.199958
11 0 100 12 0.199958
1 1 100 12 1
3 2 100 12 1
6 3 100 12 1
7 4 100 12 1
7 5 100 12 0.000215354
9 5 100 12 0.499893
10 5 100 12 0.499892
3 6 100 12 1
12 7 100 12 1
2 0 100 13 0.196282
3 0 100 13 0.000707154
4 0 100 13 0.212952
5 0 100 13 0.198371
8 0 100 13 0.132738
9 0 100 13 0.0163809
10 0 100 13 0.0142766
11 0 100 13 0.196571
12 0 100 13 0.0317201
1 1 100 13 1
1 2 100 13 2.54989e-06
3 2 100 13 0.866248
6 2 100 13 0.0670366
10 2 100 13 0.0617235
12 2 100 13 0.00498919
3 3 100 13 0.00215709
5 3 100 13 0.00249241
6 3 100 13 0.710965
7 3 100 13 0.0710965
9 3 100 13 0.142193
10 3 100 13 0.00523222
12 3 100 13 0.0658642
2 4 100 13 0.0941853
3 4 100 13 0.000219245
5 4 100 13 0.0787799
7 4 100 13 0.185253
8 4 100 13 0.271057
9 4 100 13 0.277879
13 4 100 13 0.0926264
3 5 100 13 0.00011942
6 5 100 13 0.124969
7 5 100 13 0.312422
8 5 100 13 6.98827e-05
9 5 100 13 0.0624845
10 5 100 13 0.187542
11 5 100 13 0.0624844
12 5 100 13 0.12494
13 5 100 13 0.124969
2 6 100 13 6.59528e-05
5 6 100 13 0.000381474
7 6 100 13 0.165715
8 6 100 13 0.163172
9 6 100 13 0.0828562
10 6 100 13 0.413813
12 6 100 13 0.0911408
13 6 100 13 0.0828561
3 7 100 13 1.22626e-05
7 7 100 13 0.137642
9 7 100 13 0.275284
10 7 100 13 0.0317512
12 7 100 13 0.280026
13 7 100 13 0.275284
7 8 100 13 0.0795435
9 8 100 13 0.0795463
10 8 100 13 0.212945
12 8 100 13 0.230234
13 8 100 13 0.397732
2 0 100 16 0.129554
3 0 100 16 0.0160488
4 0 100 16 0.194268
5 0 100 16 0.12944
8 0 100 16 0.141377
11 0 100 16 0.194268
13 0 100 16 0.000267507
14 0 100 16 0.129512
15 0 100 16 0.0652643
1 1 100 16 1
3 2 100 16 0.998692
8 2 100 16 9.18052e-05
15 2 100 16 0.00121626
2 3 100 16 0.249802
5 3 100 16 0.250241
6 3 100 16 0.499929
15 3 100 16 2.68786e-05
7 4 100 16 1
8 5 100 16 0.289864
9 5 100 16 0.709932
15 5 100 16 0.000204019
3 6 100 16 0.192324
9 6 100 16 0.201919
10 6 100 16 0.201919
12 6 100 16 0.201919
13 6 100 16 0.201919
10 7 100 16 0.666017
13 7 100 16 0.000970721
14 7 100 16 0.333008
15 7 100 16 3.89812e-06
13 8 100 16 0.500464
15 8 100 16 0.248419
16 8 100 16 0.251117
6 9 100 16 0.166667
12 9 100 16 0.333334
15 9 100 16 0.166666
16 9 100 16 0.333334
1 0 100 19 0.000346428
3 0 100 19 0.000660437
4 0 100 19 0.152414
5 0 100 19 0.152284
6 0 100 19 0.000305718
8 0 100 19 0.0766205
9 0 100 19 0.0195449
10 0 100 19 0.0766919
11 0 100 19 0.000309635
12 0 100 19 0.0766919
13 0 100 19 0.0606773
14 0 100 19 0.153378
15 0 100 19 0.0766919
17 0 100 19 0.0766919
18 0 100 19 0.0766919
2 1 100 19 0.666663
7 1 100 19 4.26055e-06
11 1 100 19 0.333332
2 2 100 19 3.71816e-06
3 2 100 19 1.40124e-05
4 2 100 19 0.00421208
6 2 100 19 0.333598
7 2 100 19 0.334933
9 2 100 19 0.257322
13 2 100 19 0.0699168
7 3 100 19 0.505642
8 3 100 19 0.000435827
9 3 100 19 0.493922
8 4 100 19 0.501001
11 4 100 19 0.498964
14 4 100 19 3.45222e-05
8 5 100 19 2.01986e-05
10 5 100 19 0.49999
12 5 100 19 0.49999
1 6 100 19 0.999956
4 6 100 19 2.20338e-05
13 6 100 19 2.20337e-05
1 7 100 19 1.8545e-05
3 7 100 19 0.992776
4 7 100 19 1.39327e-05
5 7 100 19 0.00714896
6 7 100 19 6.23624e-06
9 7 100 19 2.38966e-05
13 7 100 19 1.27268e-05
6 8 100 19 0.5
16 8 100 19 0.5
13 9 100 19 0.333333
15 9 100 19 0.333333
17 9 100 19 0.333333
9 10 100 19 3.51246e-06
16 10 100 19 0.249999
18 10 100 19 0.249999
19 10 100 19 0.499998
2 0 100 21 0.141951
3 0 100 21 0.00220692
4 0 100 21 0.141951
5 0 100 21 0.141951
9 0 100 21 0.141951
11 0 100 21 1.83234e-05
12 0 100 21 0.141951
13 0 100 21 0.000620923
16 0 100 21 0.141951
18 0 100 21 0.00345825
19 0 100 21 0.141951
20 0 100 21 3.93622e-05
1 1 100 21 1
3 2 100 21 1
6 3 100 21 1
3 4 100 21 1
11 5 100 21 0.998436
13 5 100 21 0.00150987
18 5 100 21 5.45435e-05
11 6 100 21 9.43646e-05
13 6 100 21 0.999895
18 6 100 21 1.02601e-05
8 7 100 21 0.2
10 7 100 21 0.2
14 7 100 21 0.2
15 7 100 21 0.2
17 7 100 21 0.2
7 8 100 21 1
18 9 100 21 0.000320181
20 9 100 21 0.99968
18 10 100 21 0.999665
20 10 100 21 0.000334739
18 11 100 21 0.00235248
20 11 100 21 4.95972e-05
21 11 100 21 0.997598
1 0 100 23 0.065925
3 0 100 23 0.00285622
4 0 100 23 0.122652
5 0 100 23 0.125672
6 0 100 23 0.000677327
9 0 100 23 0.0516144
12 0 100 23 0.125672
13 0 100 23 0.00224244
14 0 100 23 0.125672
15 0 100 23 0.125672
18 0 100 23 0.125672
21 0 100 23 0.125672
2 1 100 23 1
1 2 100 23 0.000129255
3 2 100 23 0.978899
4 2 100 23 0.0209204
6 2 100 23 7.24826e-06
9 2 100 23 3.36578e-05
13 2 100 23 1.04482e-05
6 3 100 23 0.25
7 3 100 23 0.5
9 3 100 23 0.25
8 4 100 23 1
9 5 100 23 0.0812874
10 5 100 23 0.918713
1 6 100 23 1.64356e-05
11 6 100 23 0.99994
13 6 100 23 4.41381e-05
1 7 100 23 0.00108447
4 7 100 23 4.87785e-05
9 7 100 23 5.67432e-05
13 7 100 23 0.99881
16 8 100 23 1
1 9 100 23 0.321666
4 9 100 23 8.30414e-06
17 9 100 23 0.339163
19 9 100 23 0.339163
17 10 100 23 0.25
20 10 100 23 0.25
22 10 100 23 0.25
23 10 100 23 0.25
19 11 100 23 1
4 12 100 23 0.00619712
6 12 100 23 0.99235
9 12 100 23 0.00145281
20 13 100 23 0.333333
22 13 100 23 0.333333
23 13 100 23 0.333333
1 0 100 24 0.124568
3 0 100 24 0.00487397
4 0 100 24 0.11972
5 0 100 24 0.124604
10 0 100 24 6.41639e-05
13 0 100 24 0.124604
14 0 100 24 0.00314681
15 0 100 24 0.124604
16 0 100 24 0.124604
19 0 100 24 0.124604
22 0 100 24 0.124604
2 1 100 24 1
1 2 100 24 0.000235
3 2 100 24 0.960631
4 2 100 24 0.0391336
6 3 100 24 0.33339
7 3 100 24 0.333391
10 3 100 24 0.333219
9 4 100 24 1
8 5 100 24 0.333333
21 5 100 24 0.333333
23 5 100 24 0.333333
11 6 100 24 1
12 7 100 24 0.999949
14 7 100 24 5.09188e-05
1 8 100 24 5.4299e-05
4 8 100 24 5.43001e-05
14 8 100 24 0.999891
17 9 100 24 1
18 10 100 24 0.5
20 10 100 24 0.5
24 11 100 24 1
1 0 100 26 9.51135e-06
3 0 100 26 0.00226278
4 0 100 26 0.10022
5 0 100 26 0.0972709
8 0 100 26 0.00226282
9 0 100 26 0.10022
10 0 100 26 0.0972708
13 0 100 26 0.00226282
14 0 100 26 0.10022
15 0 100 26 0.0972708
18 0 100 26 0.00226281
19 0 100 26 0.10022
20 0 100 26 0.0972713
23 0 100 26 0.00451344
24 0 100 26 0.10022
25 0 100 26 0.0962423
22 1 100 26 1
2 2 100 26 0.000537824
7 2 100 26 0.000537824
12 2 100 26 0.000537824
17 2 100 26 0.000568287
22 2 100 26 0.997818
20 3 100 26 0.0011451
23 3 100 26 0.161089
25 3 100 26 0.837766
5 4 100 26 2.13715e-05
10 4 100 26 2.13876e-05
15 4 100 26 2.14037e-05
20 4 100 26 2.17898e-05
23 4 100 26 0.969326
25 4 100 26 0.0305885
26 5 100 26 1
1 6 100 26 0.999934
2 6 100 26 4.93232e-05
7 6 100 26 1.67203e-05
1 7 100 26 0.000159054
2 7 100 26 0.999827
22 7 100 26 1.40659e-05
3 8 100 26 0.206168
5 8 100 26 0.793832
3 9 100 26 0.977538
5 9 100 26 0.0223129
10 9 100 26 3.7875e-05
15 9 100 26 3.72206e-05
20 9 100 26 3.71565e-05
25 9 100 26 3.70926e-05
6 10 100 26 1
2 11 100 26 0.000391389
7 11 100 26 0.997047
12 11 100 26 0.000746984
17 11 100 26 0.000392123
22 11 100 26 0.00142204
7 12 100 26 0.999986
22 12 100 26 1.4307e-05
5 13 100 26 0.00254979
8 13 100 26 0.205643
10 13 100 26 0.791808
5 14 100 26 3.74469e-05
8 14 100 26 0.977537
10 14 100 26 0.0223129
15 14 100 26 3.7875e-05
20 14 100 26 3.72206e-05
25 14 100 26 3.71565e-05
11 15 100 26 1
1 16 100 26 0.000243547
2 16 100 26 0.000589526
7 16 100 26 0.000391215
12 16 100 26 0.996604
17 16 100 26 0.000746652
22 16 100 26 0.00142463
12 17 100 26 0.999986
22 17 100 26 1.435e-05
10 18 100 26 0.00254979
13 18 100 26 0.205643
15 18 100 26 0.791808
5 19 100 26 3.7182e-05
10 19 100 26 3.74469e-05
13 19 100 26 0.977537
15 19 100 26 0.0223129
20 19 100 26 3.7875e-05
25 19 100 26 3.72206e-05
16 20 100 26 1
2 21 100 26 0.000389185
7 21 100 26 0.000589121
12 21 100 26 0.000390946
17 21 100 26 0.995919
22 21 100 26 0.00271202
17 22 100 26 0.999983
22 22 100 26 1.67882e-05
15 23 100 26 0.00254979
18 23 100 26 0.205643
20 23 100 26 0.791808
5 24 100 26 3.71077e-05
10 24 100 26 3.7182e-05
15 24 100 26 3.74469e-05
18 24 100 26 0.977538
20 24 100 26 0.0223129
25 24 100 26 3.7875e-05
21 25 100 26 1
