0 2 6.50535e-06
0 3 0.541029
0 4 0.384059
36 33 0.999995
0 7 0.0471813
54 47 0.666663
54 48 0.333332
0 15 0.0277198
19 9 0.496629
19 18 0.503365
37 34 0.999995
55 49 0.999995
38 14 0.222221
38 15 0.444442
2 2 0.999995
20 19 0.999995
56 47 0.666663
38 35 0.333332
56 50 0.333332
57 15 0.666663
21 9 0.49945
3 2 0.525802
21 19 0.00109479
3 7 0.474192
21 20 0.49945
39 36 0.999995
57 51 0.333332
58 7 0.999995
40 7 0.999995
22 7 0.432012
22 15 0.567982
4 3 0.190672
4 7 0.809323
41 14 0.499997
23 15 0.664936
5 3 0.999995
23 21 0.335059
41 37 0.499997
59 52 0.999995
60 15 0.999995
42 13 0.999995
24 7 0.333829
24 15 0.332137
6 5 0.999995
24 22 0.334028
61 15 0.464028
25 14 0.333332
7 6 0.999995
25 23 0.666663
43 38 0.999995
61 53 0.535967
62 2 0.999995
8 2 0.343015
8 7 0.656979
26 24 0.999995
44 39 0.999995
45 7 0.999995
27 9 0.499997
9 3 0.999995
27 25 0.499998
63 54 0.999995
64 2 0.999995
46 14 0.375
28 7 0.336521
28 9 0.663474
46 28 0.374995
10 9 0.40214
10 10 0.597855
46 40 0.25
65 14 0.249999
47 15 0.0684045
29 3 0.0012347
65 47 0.499997
11 8 0.999995
29 26 0.99876
47 41 0.93159
65 55 0.249999
12 9 0.251677
12 12 0.748318
30 27 0.999995
48 42 0.999995
66 56 0.999995
49 14 0.499997
31 15 0.312624
13 3 0.000376928
13 11 0.999618
31 28 0.196394
49 43 0.499997
31 46 0.490977
32 14 0.105196
32 15 0.474015
14 3 0.999995
32 29 0.420784
50 44 0.999995
15 13 0.499997
15 14 0.437498
15 15 0.0624997
33 30 0.999995
51 44 0.999995
52 14 0.999995
16 15 0.666604
16 16 0.333391
34 31 0.999995
35 8 0.333332
35 14 0.333332
17 15 0.332633
17 17 0.333681
35 32 0.333332
53 45 0.499997
53 47 0.499997
17 47 0.333681
18 3 6.14675e-05
18 7 0.120394
18 9 0.879539
