1 1 4 100 1
0 2 4 100 1
0 3 4 100 0.00029811
2 3 4 100 0.499702
3 3 4 100 0.5
0 4 4 100 1
0 5 4 100 0.998764
4 5 4 100 0.00123623
2 6 4 100 1
2 7 4 100 0.5
3 7 4 100 0.5
0 8 4 100 1
4 9 4 100 1
0 10 4 100 0.00566287
2 10 4 100 0.920744
3 10 4 100 0.0735933
0 11 4 100 1
2 12 4 100 0.0735933
3 12 4 100 0.926407
4 13 4 100 1
1 1 5 100 0.988569
2 1 5 100 0.0114314
0 2 5 100 0.619155
2 2 5 100 0.213157
3 2 5 100 0.0189869
4 2 5 100 0.148701
0 3 5 100 0.440145
2 3 5 100 0.559855
0 4 5 100 0.925986
3 4 5 100 0.00133281
4 4 5 100 0.0726815
0 5 5 100 0.562073
2 5 5 100 1.83867e-05
3 5 5 100 0.215686
5 5 5 100 0.222222
3 6 5 100 1
0 7 5 100 0.000179063
1 7 5 100 0.142678
4 7 5 100 0.853657
5 7 5 100 0.00348625
0 8 5 100 0.571587
3 8 5 100 0.285557
4 8 5 100 0.141675
5 8 5 100 0.00118001
0 9 5 100 0.142857
4 9 5 100 0.285714
5 9 5 100 0.571429
0 10 5 100 0.000437168
4 10 5 100 0.0471375
5 10 5 100 0.952425
0 11 5 100 0.666667
5 11 5 100 0.333333
0 12 5 100 0.000230956
5 12 5 100 0.999769
5 13 5 100 1
1 1 6 100 0.999776
2 1 6 100 0.000223737
0 2 6 100 0.99385
3 2 6 100 1.25615e-05
4 2 6 100 0.00613685
0 3 6 100 0.00230303
2 3 6 100 0.827406
3 3 6 100 0.170291
0 4 6 100 1
0 5 6 100 0.160369
3 5 6 100 0.00256397
4 5 6 100 0.837067
3 6 6 100 0.444444
5 6 6 100 0.110868
6 6 6 100 0.444688
3 7 6 100 0.00409111
5 7 6 100 0.881638
6 7 6 100 0.11427
0 8 6 100 0.876212
3 8 6 100 8.35171e-06
4 8 6 100 0.12378
3 9 6 100 0.111111
5 9 6 100 0.444444
6 9 6 100 0.444444
0 10 6 100 0.000343169
6 10 6 100 0.999657
0 11 6 100 1
0 12 6 100 0.000695619
6 12 6 100 0.999304
6 13 6 100 1
1 1 7 100 1
0 2 7 100 0.999813
4 2 7 100 0.000186484
0 3 7 100 0.0027783
2 3 7 100 0.80708
4 3 7 100 0.000394497
6 3 7 100 0.189748
0 4 7 100 1
0 5 7 100 1
3 6 7 100 1
4 7 7 100 0.33319
5 7 7 100 0.500144
6 7 7 100 0.166667
0 8 7 100 0.833333
4 8 7 100 0.16648
5 8 7 100 0.0001864
0 9 7 100 0.166667
5 9 7 100 0.5
7 9 7 100 0.333333
0 10 7 100 0.000533261
5 10 7 100 0.500276
6 10 7 100 0.499191
0 11 7 100 0.833334
5 11 7 100 0.166666
0 12 7 100 0.316799
2 12 7 100 0.000138599
6 12 7 100 0.016518
7 12 7 100 0.666545
7 13 7 100 1
1 1 8 100 0.999994
2 1 8 100 6.33956e-06
0 2 8 100 0.672724
3 2 8 100 0.166559
4 2 8 100 0.160585
6 2 8 100 0.000132666
0 3 8 100 0.0431412
2 3 8 100 0.951454
3 3 8 100 0.00505674
5 3 8 100 0.000318533
7 3 8 100 2.96969e-05
0 4 8 100 1
0 5 8 100 0.685015
3 5 8 100 0.172506
4 5 8 100 0.141712
6 5 8 100 0.000767342
3 6 8 100 0.666667
5 6 8 100 0.333333
4 7 8 100 0.166667
5 7 8 100 0.166667
6 7 8 100 0.166673
7 7 8 100 0.333333
8 7 8 100 0.166661
0 8 8 100 0.366592
2 8 8 100 2.75728e-05
4 8 8 100 0.169058
5 8 8 100 0.1361
6 8 8 100 0.328223
3 9 8 100 0.166667
6 9 8 100 0.333333
7 9 8 100 0.333333
8 9 8 100 0.166667
0 10 8 100 0.143682
6 10 8 100 0.333259
7 10 8 100 0.0768931
8 10 8 100 0.446165
0 11 8 100 1
0 12 8 100 0.00574253
6 12 8 100 0.166929
7 12 8 100 0.344939
8 12 8 100 0.482389
6 13 8 100 0.166667
8 13 8 100 0.833333
7 14 8 100 1
0 15 8 100 0.997126
2 15 8 100 0.00219176
3 15 8 100 0.00010753
5 15 8 100 0.00057476
8 16 8 100 1
1 1 9 100 1
0 2 9 100 1
0 3 9 100 0.00316671
2 3 9 100 0.520592
6 3 9 100 0.476241
0 4 9 100 1
0 5 9 100 0.999434
3 5 9 100 0.000565608
3 6 9 100 0.5
9 6 9 100 0.5
4 7 9 100 1
0 8 9 100 1
5 9 9 100 1
7 10 9 100 1
0 11 9 100 1
9 12 9 100 1
0 13 9 100 0.00206551
7 13 9 100 0.00145751
8 13 9 100 0.996477
0 14 9 100 1
0 15 9 100 0.00536399
7 15 9 100 5.8529e-06
8 15 9 100 0.49463
9 15 9 100 0.5
9 16 9 100 1
0 1 10 100 0.250617
2 1 10 100 6.45205e-05
6 1 10 100 0.748573
7 1 10 100 0.000730755
8 1 10 100 1.53423e-05
1 2 10 100 0.750169
2 2 10 100 5.69023e-05
6 2 10 100 9.70892e-05
7 2 10 100 0.249677
0 3 10 100 0.0206343
2 3 10 100 0.240167
7 3 10 100 0.497837
8 3 10 100 0.000634735
9 3 10 100 0.240727
0 4 10 100 0.986959
2 4 10 100 0.0130083
6 4 10 100 1.09923e-05
7 4 10 100 2.14856e-05
0 5 10 100 0.986522
3 5 10 100 8.81806e-06
4 5 10 100 4.21682e-05
7 5 10 100 0.00358491
8 5 10 100 0.00139579
9 5 10 100 0.00844626
0 6 10 100 0.000996578
2 6 10 100 0.249
3 6 10 100 0.25
5 6 10 100 2.52196e-06
7 6 10 100 3.12722e-06
8 6 10 100 0.25
10 6 10 100 0.249998
1 7 10 100 0.23284
2 7 10 100 0.267155
3 7 10 100 0.5
7 7 10 100 4.26237e-06
0 8 10 100 0.26584
3 8 10 100 0.000850218
4 8 10 100 0.7333
5 8 10 100 1.00995e-05
0 9 10 100 0.313712
2 9 10 100 0.192067
3 9 10 100 0.494205
7 9 10 100 1.19832e-05
10 9 10 100 3.51247e-06
0 10 10 100 0.487167
3 10 10 100 0.00180806
4 10 10 100 0.010941
5 10 10 100 0.5
8 10 10 100 9.78524e-06
9 10 10 100 7.38385e-05
0 11 10 100 0.00100935
1 11 10 100 0.25
4 11 10 100 0.248991
5 11 10 100 0.249998
6 11 10 100 0.25
10 11 10 100 2.52197e-06
0 12 10 100 0.666667
5 12 10 100 0.333333
0 13 10 100 0.271181
2 13 10 100 0.0695889
6 13 10 100 3.21993e-05
7 13 10 100 0.325864
9 13 10 100 0.333334
0 14 10 100 0.999977
4 14 10 100 2.29695e-05
0 15 10 100 0.666667
9 15 10 100 0.333333
8 16 10 100 0.666667
10 16 10 100 0.333333
0 17 10 100 0.333333
9 17 10 100 0.666667
0 18 10 100 0.666667
10 18 10 100 0.333333
9 19 10 100 0.333333
10 19 10 100 0.666667
10 20 10 100 1
0 21 10 100 1
10 22 10 100 1
10 23 10 100 1
0 1 11 100 0.499856
1 1 11 100 0.5
2 1 11 100 0.000117531
8 1 11 100 2.64653e-05
0 2 11 100 0.5
1 2 11 100 0.5
0 3 11 100 0.0273314
2 3 11 100 0.972669
0 4 11 100 0.980402
2 4 11 100 0.0195719
8 4 11 100 2.64658e-05
0 5 11 100 1
3 6 11 100 1
3 7 11 100 0.5
8 7 11 100 0.5
5 8 11 100 0.5
7 8 11 100 0.5
0 9 11 100 0.5
4 9 11 100 0.5
0 10 11 100 0.000257471
3 10 11 100 0.499742
7 10 11 100 0.500001
0 11 11 100 6.45414e-05
5 11 11 100 0.499888
6 11 11 100 0.500047
0 12 11 100 0.5
7 12 11 100 0.5
0 13 11 100 0.502188
5 13 11 100 0.000755949
6 13 11 100 0.497057
0 14 11 100 0.0126272
7 14 11 100 0.500026
8 14 11 100 0.487347
0 15 11 100 0.5
7 15 11 100 0.5
0 16 11 100 1
7 17 11 100 0.5
9 17 11 100 0.5
0 18 11 100 0.0121812
5 18 11 100 2.73084e-05
6 18 11 100 5.10037e-06
9 18 11 100 0.000160037
10 18 11 100 0.986447
11 18 11 100 0.00117908
0 19 11 100 1
0 20 11 100 0.000138647
9 20 11 100 0.499674
10 20 11 100 0.500163
11 20 11 100 2.48583e-05
5 21 11 100 0.5
11 21 11 100 0.5
0 22 11 100 1
5 23 11 100 1
11 24 11 100 1
0 1 13 100 0.0515821
9 1 13 100 0.948418
1 2 13 100 1
0 3 13 100 0.00608197
2 3 13 100 0.993918
0 4 13 100 0.991446
2 4 13 100 0.00231369
7 4 13 100 3.79293e-05
9 4 13 100 2.44842e-05
12 4 13 100 0.00617749
0 5 13 100 1
0 6 13 100 0.0107793
2 6 13 100 1.44724e-05
12 6 13 100 0.989206
3 7 13 100 1
4 8 13 100 1
0 9 13 100 0.821414
2 9 13 100 6.72038e-05
5 9 13 100 0.176959
7 9 13 100 0.000111588
12 9 13 100 0.00144821
5 10 13 100 1
6 11 13 100 1
0 12 13 100 1
0 13 13 100 0.0133278
6 13 13 100 3.56527e-05
7 13 13 100 0.986637
0 14 13 100 1
0 15 13 100 1
8 16 13 100 1
10 17 13 100 1
0 18 13 100 1
11 19 13 100 1
13 20 13 100 1
0 21 13 100 1
13 22 13 100 1
13 23 13 100 1
0 1 25 100 9.49056e-05
6 1 25 100 0.999732
7 1 25 100 0.000159056
16 1 25 100 1.43449e-05
2 2 25 100 2.67475e-05
6 2 25 100 4.93132e-05
7 2 25 100 0.999843
11 2 25 100 2.30426e-05
16 2 25 100 3.47232e-05
21 2 25 100 2.29388e-05
0 3 25 100 0.0225782
8 3 25 100 0.00181228
9 3 25 100 0.97561
0 4 25 100 1
0 5 25 100 0.970597
4 5 25 100 2.10154e-05
8 5 25 100 0.00697819
9 5 25 100 0.0222694
13 5 25 100 2.24712e-05
14 5 25 100 3.73739e-05
19 5 25 100 3.71095e-05
24 5 25 100 3.70353e-05
10 6 25 100 1
2 7 25 100 2.67475e-05
6 7 25 100 1.67169e-05
11 7 25 100 0.0587001
12 7 25 100 0.941199
16 7 25 100 2.30426e-05
21 7 25 100 3.47231e-05
0 8 25 100 0.0225785
13 8 25 100 0.00181228
14 8 25 100 0.975609
0 9 25 100 1
0 10 25 100 0.970597
4 10 25 100 2.10312e-05
9 10 25 100 3.78012e-05
13 10 25 100 0.00697819
14 10 25 100 0.0222694
18 10 25 100 2.24712e-05
19 10 25 100 3.73739e-05
24 10 25 100 3.71095e-05
15 11 25 100 1
2 12 25 100 2.67476e-05
11 12 25 100 4.3978e-05
16 12 25 100 0.0587003
17 12 25 100 0.941206
21 12 25 100 2.30427e-05
0 13 25 100 0.0225785
18 13 25 100 0.00181228
19 13 25 100 0.975609
0 14 25 100 1
0 15 25 100 0.970597
4 15 25 100 2.1047e-05
9 15 25 100 3.71481e-05
14 15 25 100 3.78012e-05
18 15 25 100 0.00697819
19 15 25 100 0.0222694
23 15 25 100 2.24713e-05
24 15 25 100 3.73739e-05
20 16 25 100 1
2 17 25 100 2.82629e-05
11 17 25 100 2.30862e-05
16 17 25 100 4.39785e-05
21 17 25 100 0.0587009
22 17 25 100 0.941204
0 18 25 100 0.0225784
23 18 25 100 0.00181228
24 18 25 100 0.975609
0 19 25 100 1
0 20 25 100 0.970606
3 20 25 100 1.2883e-05
4 20 25 100 2.14268e-05
9 20 25 100 3.70842e-05
14 20 25 100 3.71483e-05
19 20 25 100 3.78014e-05
23 20 25 100 0.00697822
24 20 25 100 0.0222695
25 21 25 100 1
1 22 25 100 0.949991
2 22 25 100 0.0496242
7 22 25 100 1.40661e-05
11 22 25 100 8.37208e-05
12 22 25 100 1.34659e-05
16 22 25 100 8.39108e-05
17 22 25 100 1.35064e-05
21 22 25 100 0.000159848
22 22 25 100 1.58011e-05
0 23 25 100 0.0450354
3 23 25 100 0.00181229
4 23 25 100 0.953152
0 24 25 100 1
0 25 25 100 0.960346
3 25 25 100 0.0094254
4 25 25 100 0.0300792
9 25 25 100 3.70208e-05
14 25 25 100 3.70845e-05
19 25 25 100 3.71486e-05
24 25 25 100 3.78017e-05
5 26 25 100 1
