2 0.0681701 0.885753 0.0380649 0.00801203 0 0 0 0 0 0 
3 0.157291 0.596334 0.076873 0.155879 0 0.0136228 0 0 0 0 
4 0.667387 0.29157 0.0410431 0 0 0 0 0 0 0 
5 0.0863183 0.913682 0 0 0 0 0 0 0 0 
6 0.0789448 0.868243 0.0335742 0.0105019 0.00873601 0 0 0 0 0 
7 0.0748963 0.875 0.0318525 0.00996334 0.00828801 0 0 0 0 0 
8 0.135638 0.814255 0.0318558 0.00996334 0.00828801 0 0 0 0 0 
9 0.10012 0.861752 0.0262316 0.0118966 0 0 0 0 0 0 
10 0.103108 0.554473 0.146254 0.180401 0 0.0157636 0 0 0 0 
11 0.591993 0.360231 0.0477767 0 0 0 0 0 0 0 
12 0.107725 0.579673 0.107681 0.188451 0 0.0164694 0 0 0 0 
13 0.12083 0.586003 0.0912597 0.18568 0 0.0162272 0 0 0 0 
14 0.00650314 0.724866 0.191175 0.0774559 0 0 0 0 0 0 
15 0 0 1 0 0 0 0 0 0 0 
16 0.109357 0.558289 0.0940414 0.221593 0 0.0167189 0 0 0 0 
17 0.00521883 0.67162 0.208456 0.114705 0 0 0 0 0 0 
18 0.158378 0.813666 0.0192326 0.00872421 0 0 0 0 0 0 
19 0.0885138 0.822377 0.0675379 0.0117766 0.00979492 0 0 0 0 0 
20 0.610241 0.340512 0.0492467 0 0 0 0 0 0 0 
21 0.00529912 0.681953 0.226917 0.0858311 0 0 0 0 0 0 
22 0.0887394 0.854019 0.0413041 0.00959964 0.00633789 0 0 0 0 0 
23 0.106141 0.541869 0.0921693 0.243594 0 0.0162272 0 0 0 0 
24 0.0993398 0.846566 0.026726 0.027368 0 0 0 0 0 0 
25 0.600962 0.335386 0.0636521 0 0 0 0 0 0 0 
26 0.107725 0.594733 0.0926218 0.188451 0 0.0164694 0 0 0 0 
27 0.00529912 0.681953 0.226951 0.0857973 0 0 0 0 0 0 
28 0.101035 0.841493 0.0365367 0.0114285 0.00950684 0 0 0 0 0 
29 0.00521883 0.701886 0.208398 0.0844974 0 0 0 0 0 0 
30 0.111039 0.582263 0.0954717 0.19425 0 0.0169762 0 0 0 0 
31 0.0872705 0.876233 0.0258864 0.0106105 0 0 0 0 0 0 
32 0.106141 0.55654 0.0985948 0.222498 0 0.0162272 0 0 0 0 
33 0.0871927 0.854478 0.037082 0.0115991 0.00964873 0 0 0 0 0 
34 0.00529912 0.697337 0.211566 0.0857973 0 0 0 0 0 0 
35 0.111039 0.566878 0.0954717 0.209634 0 0.0169762 0 0 0 0 
36 0.111039 0.582263 0.0954717 0.19425 0 0.0169762 0 0 0 0 
37 0.0963745 0.866072 0.0258348 0.0117191 0 0 0 0 0 0 
38 0 0 0 1 0 0 0 0 0 0 
39 0.0834559 0.860714 0.0354928 0.011102 0.00923521 0 0 0 0 0 
40 0.0861253 0.856403 0.0365367 0.0114285 0.00950684 0 0 0 0 0 
41 0.00521883 0.67162 0.238664 0.0844974 0 0 0 0 0 0 
42 0 0.999998 1.27359e-06 0 0 0 0 0 0 0 
43 0.111039 0.582263 0.0954717 0.19425 0 0.0169762 0 0 0 0 
44 0 0.999998 1.27359e-06 0 0 0 0 0 0 0 
45 0.109645 0.588304 0.0940251 0.191307 0 0.0167189 0 0 0 0 
46 0.109357 0.558289 0.0940257 0.206457 0 0.0318705 0 0 0 0 
47 0.00529912 0.696208 0.212696 0.0857973 0 0 0 0 0 0 
48 0.106141 0.600693 0.0912597 0.18568 0 0.0162272 0 0 0 0 
49 0 0 1 0 0 0 0 0 0 0 
50 0.00529912 0.697337 0.211566 0.0857973 0 0 0 0 0 0 
51 0.109357 0.588592 0.0940251 0.191307 0 0.0167189 0 0 0 0 
52 0.0978347 0.864042 0.0262262 0.0118966 0 0 0 0 0 0 
53 0 0.5 0 0.5 0 0 0 0 0 0 
54 0.0898756 0.834615 0.038223 0.0273406 0.00994561 0 0 0 0 0 
55 0.0993398 0.861951 0.0266297 0.0120797 0 0 0 0 0 0 
56 0.111039 0.566878 0.0954717 0.209634 0 0.0169762 0 0 0 0 
57 0 0 0 0.999999 0 0 0 0 0 0 
58 0.0904604 0.849415 0.038223 0.011956 0.00994561 0 0 0 0 0 
59 0.00529912 0.697337 0.211566 0.0857973 0 0 0 0 0 0 
60 0.0900028 0.847697 0.0403985 0.011956 0.00994561 0 0 0 0 0 
61 0.00529912 0.684145 0.224632 0.0859244 0 0 0 0 0 0 
62 0.00529912 0.697337 0.211566 0.0857973 0 0 0 0 0 0 
63 0 0.999998 1.32805e-06 0 0 0 0 0 0 0 
64 0.00529912 0.697337 0.211566 0.0857973 0 0 0 0 0 0 
65 0.0898756 0.834615 0.038223 0.011956 0.0253302 0 0 0 0 0 
66 0.0978347 0.864042 0.0262262 0.0118966 0 0 0 0 0 0 
