0 3 0.124901
0 4 0.361876
18 19 0.999994
0 8 0.101199
36 39 0.999994
0 14 0.206786
0 18 0.204822
0 22 0.000406418
54 63 0.999994
0 45 3.12219e-06
19 3 0.999994
37 40 0.666662
37 41 0.333331
55 65 0.999994
2 2 0.810122
38 28 0.105834
20 20 0.499997
2 8 0.142218
20 21 0.499997
38 40 0.44708
38 43 0.447081
56 66 0.999994
2 62 0.0238272
2 64 0.0238272
39 28 0.333331
3 3 0.731543
3 8 0.268451
21 23 0.799995
39 40 0.333331
39 44 0.333331
21 42 0.199998
4 5 0.999971
22 24 0.999994
40 45 0.332417
40 46 0.667577
4 22 2.28372e-05
41 28 0.499997
5 6 0.999994
23 25 0.999994
41 47 0.499997
6 2 5.96019e-06
6 7 0.999988
24 26 0.999994
42 48 0.999994
7 3 8.32567e-06
25 27 0.996395
25 28 0.00359856
7 22 0.999797
43 49 0.999994
7 45 0.000188414
8 11 0.999994
26 29 0.999994
44 50 0.199999
44 51 0.399998
44 52 0.399998
27 30 0.999994
9 18 0.911282
45 53 0.999994
9 28 0.0887117
46 31 0.999994
10 9 0.249998
10 10 0.749995
28 31 0.999994
47 8 0.999994
11 13 0.999994
29 32 0.999994
12 12 0.999994
30 33 0.750063
48 54 0.999994
30 45 0.24993
31 8 0.000169067
13 15 0.888883
31 34 0.999825
49 55 0.999994
13 41 0.11111
32 13 0.499997
14 22 0.999994
32 35 0.499997
50 56 0.999994
15 22 0.999994
33 36 0.999994
51 57 0.999994
16 16 0.999994
34 37 0.999994
52 58 0.999994
17 17 0.999994
35 38 0.999994
53 59 0.333331
53 60 0.333331
53 61 0.333331
