1 1 100 4 1
1 2 100 4 1
1 3 100 4 1
1 4 100 4 1
1 5 100 4 1
2 6 100 4 0.714822
3 6 100 4 0.28517
4 6 100 4 8.20523e-06
3 7 100 4 1
1 8 100 4 1
4 9 100 4 1
1 11 100 4 1
4 13 100 4 1
2 0 100 5 0.0351523
3 0 100 5 0.875761
4 0 100 5 0.0890865
1 1 100 5 1
2 2 100 5 1
2 3 100 5 0.712538
4 3 100 5 0.287462
2 4 100 5 1
2 5 100 5 0.0519942
5 5 100 5 0.948006
2 6 100 5 0.142857
3 6 100 5 0.857143
1 7 100 5 0.0332531
4 7 100 5 0.966747
1 8 100 5 0.0396843
2 8 100 5 0.960097
4 8 100 5 0.000218583
1 9 100 5 0.136488
2 9 100 5 0.0753029
3 9 100 5 4.63941e-06
5 9 100 5 0.788205
2 10 100 5 1
2 11 100 5 4.92259e-05
3 11 100 5 0.324681
4 11 100 5 0.336508
5 11 100 5 0.338762
2 12 100 5 1
5 13 100 5 1
2 0 100 6 0.0801171
3 0 100 6 0.316591
4 0 100 6 0.59787
5 0 100 6 0.00542206
1 1 100 6 1
2 2 100 6 1
2 3 100 6 1
4 4 100 6 1
2 5 100 6 1
2 6 100 6 0.326643
3 6 100 6 0.245252
5 6 100 6 0.101103
6 6 100 6 0.327003
3 7 100 6 0.692095
5 7 100 6 0.307905
1 8 100 6 0.00312636
2 8 100 6 0.968839
3 8 100 6 0.024563
4 8 100 6 0.00347134
2 9 100 6 0.0816516
3 9 100 6 0.000112438
4 9 100 6 0.178293
5 9 100 6 0.410828
6 9 100 6 0.329114
3 13 100 6 6.76985e-07
4 13 100 6 3.60178e-06
5 13 100 6 0.485199
6 13 100 6 0.514796
2 0 100 7 0.000339756
4 0 100 7 0.613612
6 0 100 7 0.386048
1 1 100 7 0.999867
6 1 100 7 0.000132587
6 2 100 7 1
2 3 100 7 1
2 4 100 7 1
6 5 100 7 1
3 6 100 7 1
4 7 100 7 0.161819
5 7 100 7 0.628636
6 7 100 7 0.209545
4 8 100 7 0.963127
6 8 100 7 0.0368735
2 9 100 7 0.0120992
4 9 100 7 1.44685e-06
5 9 100 7 0.428397
6 9 100 7 0.559503
2 10 100 7 0.000734059
4 10 100 7 0.22752
5 10 100 7 0.732404
6 10 100 7 0.0393416
1 11 100 7 5.99992e-06
2 11 100 7 5.70974e-05
4 11 100 7 0.178682
6 11 100 7 0.821255
2 12 100 7 0.000298976
4 12 100 7 2.03394e-06
5 12 100 7 7.9833e-05
6 12 100 7 0.227037
7 12 100 7 0.772582
5 13 100 7 0.00025039
7 13 100 7 0.99975
2 0 100 8 0.0046601
3 0 100 8 0.246959
4 0 100 8 0.370439
5 0 100 8 0.123585
6 0 100 8 0.246959
7 0 100 8 0.00739765
1 1 100 8 1
2 2 100 8 0.999971
5 2 100 8 2.91553e-05
2 3 100 8 0.956967
7 3 100 8 0.0430331
2 4 100 8 2.35113e-05
4 4 100 8 0.999977
2 5 100 8 0.999948
5 5 100 8 5.24911e-05
2 6 100 8 0.142857
3 6 100 8 0.571429
5 6 100 8 0.285714
4 7 100 8 0.142857
5 7 100 8 0.142857
6 7 100 8 0.428571
7 7 100 8 0.285714
2 8 100 8 0.923277
5 8 100 8 0.0767226
5 9 100 8 0.265055
7 9 100 8 0.734945
2 10 100 8 0.0491299
4 10 100 8 7.01133e-06
5 10 100 8 1.2055e-05
7 10 100 8 0.950851
2 11 100 8 0.0094878
3 11 100 8 0.0840012
4 11 100 8 0.895533
5 11 100 8 0.00214573
7 11 100 8 0.00883216
2 12 100 8 0.000879538
4 12 100 8 6.09677e-06
5 12 100 8 7.12322e-06
7 12 100 8 0.999107
1 13 100 8 0.0624764
2 13 100 8 0.11692
4 13 100 8 1.63905e-07
5 13 100 8 0.117225
6 13 100 8 0.117249
8 13 100 8 0.586129
7 14 100 8 1
2 15 100 8 0.177622
5 15 100 8 0.822013
7 15 100 8 0.000365055
8 16 100 8 1
2 0 100 9 0.000225594
4 0 100 9 0.0262875
6 0 100 9 0.972955
8 0 100 9 0.000531665
1 1 100 9 0.999664
6 1 100 9 0.000335987
6 2 100 9 1
2 3 100 9 1
2 4 100 9 1
6 5 100 9 1
3 6 100 9 1
4 7 100 9 1
6 8 100 9 1
5 9 100 9 1
7 10 100 9 1
1 11 100 9 0.281528
6 11 100 9 0.718472
2 12 100 9 0.0451579
8 12 100 9 0.954842
1 13 100 9 0.00106689
2 13 100 9 0.416893
8 13 100 9 0.582041
1 14 100 9 0.139225
2 14 100 9 0.325076
6 14 100 9 0.0103479
8 14 100 9 0.525351
2 15 100 9 0.183606
8 15 100 9 0.816394
3 16 100 9 0.333333
9 16 100 9 0.666667
2 0 100 10 0.246748
3 0 100 10 0.473107
4 0 100 10 0.0196995
6 0 100 10 0.00152792
7 0 100 10 0.0103275
8 0 100 10 0.236554
9 0 100 10 0.0120361
2 1 100 10 0.00121703
7 1 100 10 0.998783
1 2 100 10 1
2 3 100 10 0.999309
7 3 100 10 0.000690913
2 4 100 10 0.480132
4 4 100 10 0.519516
9 4 100 10 0.000352152
2 5 100 10 0.998787
7 5 100 10 0.00121251
2 6 100 10 0.0245656
5 6 100 10 0.975188
7 6 100 10 0.000246848
3 7 100 10 0.500831
6 7 100 10 0.499169
2 8 100 10 7.67272e-05
4 8 100 10 0.745284
7 8 100 10 0.254602
9 8 100 10 3.75981e-05
2 9 100 10 0.0395414
4 9 100 10 1.25848e-05
7 9 100 10 0.228547
9 9 100 10 0.731899
2 10 100 10 2.2609e-05
5 10 100 10 0.868485
7 10 100 10 0.131492
2 11 100 10 6.59948e-05
6 11 100 10 0.66549
10 11 100 10 0.334444
1 12 100 10 2.97641e-06
5 12 100 10 7.63567e-06
6 12 100 10 0.100867
7 12 100 10 1.50697e-06
8 12 100 10 0.899121
1 13 100 10 1.55756e-06
2 13 100 10 2.55893e-05
7 13 100 10 0.532086
9 13 100 10 0.467886
1 14 100 10 0.000530505
2 14 100 10 0.23073
3 14 100 10 0.00372391
4 14 100 10 0.000159674
6 14 100 10 0.219969
7 14 100 10 0.544887
1 15 100 10 1.85785e-05
6 15 100 10 0.0143202
7 15 100 10 0.985661
6 16 100 10 0.0011306
8 16 100 10 0.998869
2 17 100 10 2.66414e-06
3 17 100 10 8.13619e-06
4 17 100 10 0.00135429
6 17 100 10 2.25799e-06
7 17 100 10 3.31163e-06
9 17 100 10 0.998629
1 18 100 10 0.0012955
6 18 100 10 0.998704
2 19 100 10 1.04964e-05
7 19 100 10 0.151743
8 19 100 10 2.64339e-06
10 19 100 10 0.848244
6 20 100 10 1
1 21 100 10 0.0251369
2 21 100 10 0.0458848
7 21 100 10 0.928978
6 22 100 10 1
8 23 100 10 1.15496e-06
10 23 100 10 0.999999
2 0 100 11 0.00106705
4 0 100 11 0.992395
6 0 100 11 0.000383447
7 0 100 11 0.0052794
8 0 100 11 0.00049138
10 0 100 11 0.000383447
1 1 100 11 0.999411
2 1 100 11 0.000546387
8 1 100 11 4.30587e-05
1 2 100 11 1
2 3 100 11 1
2 4 100 11 1
2 5 100 11 1
2 6 100 11 0.0245698
3 6 100 11 0.97543
3 7 100 11 0.5
8 7 100 11 0.5
5 8 100 11 1
4 9 100 11 1
2 10 100 11 0.00745096
6 10 100 11 0.992531
8 10 100 11 1.78984e-05
2 11 100 11 0.000256851
6 11 100 11 0.998819
10 11 100 11 0.000923756
7 12 100 11 1
2 13 100 11 0.00498282
6 13 100 11 0.9066
7 13 100 11 0.000748433
10 13 100 11 0.0876688
2 14 100 11 3.43015e-05
7 14 100 11 0.866846
8 14 100 11 0.13312
2 15 100 11 1.1585e-06
5 15 100 11 0.091377
8 15 100 11 0.000283097
9 15 100 11 0.908339
1 16 100 11 0.0191403
7 16 100 11 0.979825
8 16 100 11 0.00103507
2 17 100 11 8.25504e-06
6 17 100 11 0.0520707
9 17 100 11 0.528831
10 17 100 11 0.41909
2 18 100 11 1.43384e-05
6 18 100 11 7.32574e-05
10 18 100 11 0.999912
2 19 100 11 0.000589859
6 19 100 11 0.00137609
7 19 100 11 0.739915
10 19 100 11 0.258119
2 20 100 11 2.83378e-05
6 20 100 11 0.00350505
8 20 100 11 0.89243
10 20 100 11 0.104037
7 21 100 11 0.00293307
11 21 100 11 0.997067
2 22 100 11 0.0311147
8 22 100 11 0.968885
7 23 100 11 1
11 24 100 11 1
2 0 100 13 0.000395261
4 0 100 13 0.0268457
6 0 100 13 0.00346629
7 0 100 13 0.000395261
9 0 100 13 0.968574
12 0 100 13 0.00032361
2 1 100 13 0.00138183
7 1 100 13 0.998533
12 1 100 13 8.51148e-05
1 2 100 13 1
2 3 100 13 0.996449
7 3 100 13 0.00355098
2 4 100 13 1
2 5 100 13 1
2 6 100 13 0.987546
7 6 100 13 0.01023
12 6 100 13 0.00222427
3 7 100 13 1
4 8 100 13 0.999347
9 8 100 13 0.000653071
2 9 100 13 1
5 10 100 13 1
6 11 100 13 1
6 12 100 13 1
7 13 100 13 1
7 14 100 13 1
1 15 100 13 0.0622632
6 15 100 13 0.936182
7 15 100 13 0.0015544
8 16 100 13 0.99998
9 16 100 13 3.80655e-06
10 16 100 13 1.64785e-05
9 17 100 13 0.0121131
10 17 100 13 0.49394
11 17 100 13 0.493947
1 18 100 13 0.0721429
6 18 100 13 0.927857
2 19 100 13 9.19452e-06
7 19 100 13 0.0940245
12 19 100 13 0.905966
6 20 100 13 1
1 21 100 13 0.00429752
2 21 100 13 0.00139083
7 21 100 13 0.0505548
12 21 100 13 0.943757
6 22 100 13 0.999982
11 22 100 13 1.85031e-05
3 23 100 13 0.000548934
13 23 100 13 0.999451
2 0 100 25 0.0108756
3 0 100 25 0.12231
6 0 100 25 0.00475667
7 0 100 25 0.122192
8 0 100 25 0.12231
11 0 100 25 4.90379e-05
12 0 100 25 0.00135491
13 0 100 25 0.12231
16 0 100 25 4.90379e-05
17 0 100 25 0.122208
18 0 100 25 0.12231
21 0 100 25 0.00475667
22 0 100 25 0.122207
23 0 100 25 0.12231
7 1 100 25 1
1 2 100 25 1
2 3 100 25 1
4 4 100 25 0.999768
9 4 100 25 0.00023213
2 5 100 25 1
1 6 100 25 1
1 7 100 25 1
7 8 100 25 1
9 9 100 25 0.999768
14 9 100 25 0.000232184
7 10 100 25 1
1 11 100 25 1
1 12 100 25 1
12 13 100 25 1
14 14 100 25 0.999768
19 14 100 25 0.000232185
12 15 100 25 1
1 16 100 25 1
1 17 100 25 1
17 18 100 25 1
19 19 100 25 0.999768
24 19 100 25 0.000232185
17 20 100 25 1
1 21 100 25 1
1 22 100 25 0.999747
6 22 100 25 0.000252883
2 23 100 25 0.188536
6 23 100 25 0.19887
11 23 100 25 0.206853
16 23 100 25 0.206853
21 23 100 25 0.198888
4 24 100 25 0.2
9 24 100 25 0.2
14 24 100 25 0.2
19 24 100 25 0.2
24 24 100 25 0.2
7 25 100 25 0.000845865
12 25 100 25 0.99747
17 25 100 25 0.000842832
22 25 100 25 0.000840857
5 26 100 25 0.2
10 26 100 25 0.2
15 26 100 25 0.2
20 26 100 25 0.2
25 26 100 25 0.2
