2 0.0874343 0.887439 0.0167711 0.00835619 0 0 0 0 0 0 
3 0.914673 0.078435 0 0 0.00115496 0.00573687 0 0 0 0 
4 0.805723 0.159732 0.0218418 0 0 0.0127025 0 0 0 0 
5 0.0864845 0.87028 0.0216138 0 0 0.0216216 0 0 0 0 
6 0.13333 0.812831 0.0205054 0 0 0.0333333 0 0 0 0 
7 0.499387 0.500613 0 0 0 0 0 0 0 0 
8 0.723366 0.221255 0.0443058 0 0 0.0110727 0 0 0 0 
9 0.160013 0.783301 0.0540008 0.00268526 0 0 0 0 0 0 
10 0.105659 0.792087 0.0987627 0.00349084 0 0 0 0 0 0 
11 0.11039 0.812628 0.0733341 0.00364715 0 0 0 0 0 0 
12 0.11039 0.812628 0.0733341 0.00364715 0 0 0 0 0 0 
13 0.0876692 0.868503 0.0219098 0 0 0.0219178 0 0 0 0 
14 0.452265 0.547735 0 0 0 0 0 0 0 0 
15 0.944419 0.0529317 0 0 0.000444004 0.00220544 0 0 0 0 
16 0.112063 0.809789 0.0744453 0.00370241 0 0 0 0 0 0 
17 0.0707923 0.886972 0.0281822 0.0140536 0 0 0 0 0 0 
18 0.0969675 0.854557 0.0242336 0 0 0.0242424 0 0 0 0 
19 0.071949 0.885165 0.0286158 0.0142698 0 0 0 0 0 0 
20 0.741368 0.185313 0.0617353 0 0 0.0115837 0 0 0 0 
21 0.108767 0.800678 0.0869615 0.00359351 0 0 0 0 0 0 
22 0 1 0 0 0 0 0 0 0 0 
23 0.730135 0.212808 0.0456484 0 0 0.0114082 0 0 0 0 
24 0.11039 0.812628 0.0733341 0.00364715 0 0 0 0 0 0 
25 0.0718814 0.885177 0.0286714 0.0142698 0 0 0 0 0 0 
26 0.0707923 0.886972 0.0281822 0.0140536 0 0 0 0 0 0 
27 0.113787 0.806863 0.0755906 0.00375937 0 0 0 0 0 0 
28 0 1 0 0 0 0 0 0 0 0 
29 0.108767 0.815384 0.0722557 0.00359351 0 0 0 0 0 0 
30 0.0955202 0.841807 0.0387919 0 0 0.0238806 0 0 0 0 
31 0.0718814 0.88523 0.0286184 0.0142698 0 0 0 0 0 0 
32 0.741368 0.185313 0.0617353 0 0 0.0115837 0 0 0 0 
33 0.113787 0.806863 0.0755906 0.00375937 0 0 0 0 0 0 
34 0 1 0 0 0 0 0 0 0 0 
35 0 1 0 0 0 0 0 0 0 0 
36 0.066747 0.893431 0.0265718 0.0132505 0 0 0 0 0 0 
37 0.0707923 0.87182 0.0433337 0.0140536 0 0 0 0 0 0 
38 0.113787 0.791479 0.0873333 0.00740123 0 0 0 0 0 0 
39 0 0 0 0.999999 0 0 0 0 0 0 
40 0.112063 0.7947 0.0895345 0.00370241 0 0 0 0 0 0 
41 0.0718814 0.869848 0.0440004 0.0142698 0 0 0 0 0 0 
42 0.108767 0.815384 0.0722557 0.00359351 0 0 0 0 0 0 
43 0 0.999999 0 0 0 0 0 0 0 0 
44 0.719238 0.194707 0.0748178 0 0 0.0112379 0 0 0 0 
45 0 1 0 0 0 0 0 0 0 0 
46 0.0677143 0.891886 0.0269569 0.0134426 0 0 0 0 0 0 
47 0.93298 0.0626516 0 0 0.000732006 0.00363599 0 0 0 0 
48 0.469415 0.530585 0 0 0 0 0 0 0 0 
49 0 1 0 0 0 0 0 0 0 0 
50 0.113787 0.806863 0.0755906 0.00375937 0 0 0 0 0 0 
51 0 0.999999 0 0 0 0 0 0 0 0 
52 0.0984593 0.852319 0.0246064 0 0 0.0246154 0 0 0 0 
53 0.0718814 0.869848 0.0286158 0.0296544 0 0 0 0 0 0 
54 0 1 0 0 0 0 0 0 0 0 
55 0.0984593 0.852319 0.0246064 0 0 0.0246154 0 0 0 0 
56 0.894799 0.100304 0 0 0.000820734 0.00407672 0 0 0 0 
