1 1 5 100 1
0 2 5 100 0.0392394
2 2 5 100 0.482452
4 2 5 100 0.478308
0 3 5 100 1
3 4 5 100 1
5 5 5 100 1
1 1 9 100 1
0 2 9 100 0.0413387
2 2 9 100 0.0781742
3 2 9 100 0.281673
4 2 9 100 5.69035e-06
5 2 9 100 0.0780481
6 2 9 100 0.307354
8 2 9 100 0.136511
9 2 9 100 0.0768951
0 3 9 100 0.162933
6 3 9 100 0.538739
7 3 9 100 0.298328
0 4 9 100 0.246419
4 4 9 100 0.230769
7 4 9 100 0.292042
9 4 9 100 0.230769
0 5 9 100 0.00302299
6 5 9 100 0.10306
7 5 9 100 0.143917
9 5 9 100 0.75
6 6 9 100 0.5
9 6 9 100 0.5
1 1 11 100 0.25
2 1 11 100 0.5
7 1 11 100 0.25
0 2 11 100 0.0211686
3 2 11 100 0.327401
5 2 11 100 0.151404
6 2 11 100 0.5
10 2 11 100 2.60327e-05
0 3 11 100 0.5
11 3 11 100 0.5
4 4 11 100 0.499991
9 4 11 100 8.58575e-06
11 4 11 100 0.5
6 5 11 100 0.5
11 5 11 100 0.5
0 6 11 100 0.000336721
7 6 11 100 0.999663
0 7 11 100 0.0423372
1 7 11 100 1.77606e-05
5 7 11 100 5.20654e-05
8 7 11 100 0.654785
10 7 11 100 0.302808
0 8 11 100 1
4 9 11 100 0.00135152
9 9 11 100 0.998648
11 10 11 100 1
1 1 12 100 1
0 2 12 100 0.00011642
3 2 12 100 0.999876
4 2 12 100 7.54544e-06
6 3 12 100 1
0 4 12 100 0.0109689
7 4 12 100 0.38612
10 4 12 100 0.602911
9 5 12 100 1
0 6 12 100 0.960433
1 6 12 100 0.000397814
2 6 12 100 0.0201022
5 6 12 100 6.13886e-06
8 6 12 100 0.00926974
11 6 12 100 0.00970658
12 6 12 100 8.45486e-05
12 7 12 100 1
1 1 13 100 1
0 2 13 100 0.00296455
2 2 13 100 0.0755352
3 2 13 100 0.484267
4 2 13 100 7.31415e-06
5 2 13 100 0.0374551
6 2 13 100 0.230769
8 2 13 100 0.0380705
9 2 13 100 0.0496953
10 2 13 100 0.00231408
12 2 13 100 0.00231408
13 2 13 100 0.0766071
0 3 13 100 0.153846
6 3 13 100 0.692308
7 3 13 100 0.153846
0 4 13 100 0.540951
4 4 13 100 0.116391
7 4 13 100 0.153846
8 4 13 100 0.0372497
11 4 13 100 0.0746388
13 4 13 100 0.076923
0 5 13 100 0.0833333
6 5 13 100 0.166667
7 5 13 100 0.333333
10 5 13 100 0.0833333
13 5 13 100 0.333333
0 6 13 100 0.200073
7 6 13 100 0.4
9 6 13 100 0.270494
10 6 13 100 0.0147142
11 6 13 100 4.69418e-06
12 6 13 100 0.0147142
13 6 13 100 0.1
0 7 13 100 0.000110431
3 7 13 100 0.00948612
7 7 13 100 0.222222
9 7 13 100 0.282444
10 7 13 100 0.0206447
11 7 13 100 3.43394e-06
12 7 13 100 0.0206447
13 7 13 100 0.444445
13 8 13 100 1
1 1 16 100 1
0 2 16 100 0.000504306
2 2 16 100 0.017225
3 2 16 100 0.964796
4 2 16 100 1.14801e-05
5 2 16 100 0.017225
8 2 16 100 0.000175791
13 2 16 100 2.89887e-05
15 2 16 100 3.36696e-05
6 3 16 100 0.666667
16 3 16 100 0.333333
0 4 16 100 0.0171031
7 4 16 100 0.982897
0 5 16 100 0.000284214
2 5 16 100 1.00456e-05
5 5 16 100 9.42424e-06
8 5 16 100 0.0137235
9 5 16 100 0.972253
15 5 16 100 0.0137202
0 6 16 100 0.633019
1 6 16 100 0.000224067
2 6 16 100 0.0147884
5 6 16 100 0.000317208
8 6 16 100 0.0171639
11 6 16 100 0.00115378
13 6 16 100 0.333333
0 7 16 100 0.0196387
10 7 16 100 0.666667
14 7 16 100 0.313695
0 8 16 100 0.000345909
12 8 16 100 0.632644
13 8 16 100 0.0168361
14 8 16 100 4.83744e-06
15 8 16 100 0.0168361
16 8 16 100 0.333333
16 9 16 100 1
2 1 19 100 1
0 2 19 100 0.50008
1 2 19 100 0.000322809
3 2 19 100 0.0139706
4 2 19 100 0.457377
6 2 19 100 0.0139706
8 2 19 100 9.86639e-05
9 2 19 100 0.0139819
11 2 19 100 9.86639e-05
14 2 19 100 9.95919e-05
0 3 19 100 0.5
7 3 19 100 0.5
0 4 19 100 0.0212513
4 4 19 100 0.496932
8 4 19 100 0.478749
17 4 19 100 0.00306837
6 5 19 100 0.5
10 5 19 100 0.5
0 6 19 100 0.000413918
7 6 19 100 0.496851
11 6 19 100 0.500001
16 6 19 100 0.00136729
18 6 19 100 0.00136729
0 7 19 100 0.00041407
1 7 19 100 0.346949
3 7 19 100 0.000200724
5 7 19 100 0.000157771
6 7 19 100 0.000156569
9 7 19 100 0.155924
13 7 19 100 0.299834
15 7 19 100 0.196364
12 8 19 100 0.5
16 8 19 100 0.5
0 9 19 100 0.0254406
8 9 19 100 4.83475e-05
13 9 19 100 0.5
17 9 19 100 0.474511
19 10 19 100 1
1 1 21 100 1
0 2 21 100 0.000583551
3 2 21 100 0.998862
4 2 21 100 1.73844e-05
11 2 21 100 0.00026834
13 2 21 100 0.00026834
6 3 21 100 1
0 4 21 100 1
8 5 21 100 1
0 6 21 100 0.000479273
10 6 21 100 0.912145
11 6 21 100 0.0434792
13 6 21 100 0.0434792
18 6 21 100 0.000208502
20 6 21 100 0.000208502
14 7 21 100 1
7 8 21 100 1
15 9 21 100 1
0 10 21 100 0.000479273
11 10 21 100 0.00096506
13 10 21 100 0.00096506
17 10 21 100 0.90816
18 10 21 100 0.0447082
19 10 21 100 1.42345e-05
20 10 21 100 0.0447082
21 11 21 100 1
2 1 23 100 1
0 2 23 100 0.000504868
1 2 23 100 0.000552998
3 2 23 100 0.0260685
4 2 23 100 0.916538
6 2 23 100 0.0260685
9 2 23 100 0.0302387
13 2 23 100 2.85746e-05
7 3 23 100 1
0 4 23 100 0.0342368
8 4 23 100 0.965763
10 5 23 100 1
0 6 23 100 0.00443553
11 6 23 100 0.992933
20 6 23 100 0.00131597
22 6 23 100 0.00131597
0 7 23 100 0.000450313
1 7 23 100 0.343017
3 7 23 100 9.59714e-05
6 7 23 100 0.000250376
13 7 23 100 0.426031
19 7 23 100 0.230156
16 8 23 100 1
0 9 23 100 0.499682
8 9 23 100 0.000317698
17 9 23 100 0.5
17 10 23 100 0.5
23 10 23 100 0.5
17 11 23 100 1
0 12 23 100 0.000333903
1 12 23 100 3.61558e-05
6 12 23 100 6.68868e-05
19 12 23 100 0.999563
23 13 23 100 1
2 1 24 100 1
0 2 24 100 0.000750172
1 2 24 100 0.000546714
3 2 24 100 0.0251888
4 2 24 100 0.941425
6 2 24 100 0.0251888
10 2 24 100 0.00684755
14 2 24 100 5.25365e-05
7 3 24 100 1
0 4 24 100 0.240402
9 4 24 100 0.759598
8 5 24 100 1
11 6 24 100 1
0 7 24 100 0.00659878
12 7 24 100 0.987959
21 7 24 100 0.00272116
23 7 24 100 0.00272116
0 8 24 100 0.00061419
1 8 24 100 4.30849e-05
10 8 24 100 1.64491e-05
14 8 24 100 0.310383
20 8 24 100 0.688944
17 9 24 100 1
18 10 24 100 1
24 11 24 100 1
2 1 26 100 0.164225
6 1 26 100 2.08609e-05
7 1 26 100 0.164225
11 1 26 100 2.08609e-05
12 1 26 100 0.164225
16 1 26 100 2.08609e-05
17 1 26 100 0.164225
21 1 26 100 2.08609e-05
22 1 26 100 0.343016
0 2 26 100 0.088918
23 2 26 100 0.911082
0 3 26 100 1
24 4 26 100 1
26 5 26 100 1
0 6 26 100 0.0388903
22 6 26 100 8.67646e-05
23 6 26 100 0.961023
0 7 26 100 0.99905
1 7 26 100 0.000111815
25 7 26 100 0.000838625
0 8 26 100 1
24 9 26 100 1
26 10 26 100 1
0 11 26 100 0.000400931
23 11 26 100 0.999599
0 12 26 100 0.0110777
25 12 26 100 0.988922
0 13 26 100 1
24 14 26 100 1
26 15 26 100 1
0 16 26 100 0.000400931
23 16 26 100 0.999599
0 17 26 100 0.999164
25 17 26 100 0.000835609
0 18 26 100 1
24 19 26 100 1
26 20 26 100 1
0 21 26 100 0.0388903
23 21 26 100 0.96111
0 22 26 100 0.999166
25 22 26 100 0.000833655
0 23 26 100 1
24 24 26 100 1
26 25 26 100 1
